digraph Tree {
node [shape=box, style="rounded", color="black", fontname=helvetica] ;
edge [fontname=helvetica] ;
0 [label="chest_pain <= 0.5\nmse = 0.2\nsamples = 1307\nvalue = 0.6"] ;
1 [label="cough <= 0.5\nmse = 0.2\nsamples = 631\nvalue = 0.2"] ;
0 -> 1 [labeldistance=2.5, labelangle=45, headlabel="True"] ;
2 [label="mse = 0.0\nsamples = 328\nvalue = 0.0"] ;
1 -> 2 ;
3 [label="fever <= 0.5\nmse = 0.2\nsamples = 303\nvalue = 0.5"] ;
1 -> 3 ;
4 [label="mse = 0.0\nsamples = 150\nvalue = 0.0"] ;
3 -> 4 ;
5 [label="mse = 0.0\nsamples = 153\nvalue = 1.0"] ;
3 -> 5 ;
6 [label="cough <= 0.5\nmse = 0.1\nsamples = 676\nvalue = 0.9"] ;
0 -> 6 [labeldistance=2.5, labelangle=-45, headlabel="False"] ;
7 [label="wt_loss <= 0.5\nmse = 0.2\nsamples = 338\nvalue = 0.7"] ;
6 -> 7 ;
8 [label="fever <= 0.5\nmse = 0.2\nsamples = 164\nvalue = 0.4"] ;
7 -> 8 ;
9 [label="mse = 0.0\nsamples = 91\nvalue = 0.0"] ;
8 -> 9 ;
10 [label="mse = 0.0\nsamples = 73\nvalue = 1.0"] ;
8 -> 10 ;
11 [label="mse = 0.0\nsamples = 174\nvalue = 1.0"] ;
7 -> 11 ;
12 [label="mse = 0.0\nsamples = 338\nvalue = 1.0"] ;
6 -> 12 ;
}